Weights of First Hidden Layer:
[[-0.42031094 -0.65584446  0.39128995 -0.00644255 -1.12247298  1.49650228
   0.91156208 -0.06731724 -0.14536756 -0.36641198  0.41889174 -0.01856421
  -0.6457766   0.84421503  1.41441994 -0.71789136  0.41754585 -1.16119261
  -0.50575813  0.51857042  0.05512573 -0.14103125  1.12824235  0.05070133
  -0.40539671 -1.84586948 -0.01727772  0.00360184 -1.0420812  -0.26244511
  -0.37842337 -0.51059698  0.59229802 -0.73050263 -0.28873246  0.36793004
  -0.43644555 -0.58806497 -1.42800399 -0.26330715  0.01082813  0.21552668
  -0.13668859 -0.07273533 -0.72978922  1.02770488  0.03619879  0.19028206
  -0.1939133  -0.64511178 -1.28236339 -0.51478581 -0.72861695 -0.27208336
  -1.37266026 -0.63379346  0.64153689  0.55046477  0.15643545 -0.35678715
  -0.27552583  0.70569994  0.03435968  0.52609423]
 [-1.30120866  0.37200085 -0.57929377  0.36197225 -0.65403313  1.10642357
  -1.72900719 -0.01038826 -0.51382367 -0.89900463  0.33053102  0.57407683
   0.35509365  0.24540586  0.98232825  0.07528341 -0.46096118  0.54006588
   1.43304034  0.18708719 -0.58287045  0.25347356  0.5677873  -0.44004494
  -0.33849489 -0.94641504  0.84114434  0.28807891  0.28127585 -0.05576638
   0.26630104 -0.81275768 -0.16247705  0.04095567 -0.46117328  0.67210847
  -0.52785937  1.06268469  0.29029911 -0.5400258  -0.21480208  0.42493376
  -1.36838722 -0.45851771 -1.32898373  0.58140833  0.57549648  0.69948504
   0.70501022  0.50674197  0.06774539  1.20586636 -0.64733655  0.54632517
   0.87744512 -0.42669147 -0.65001748 -0.74548933 -0.08361136 -0.4647889
  -0.60423175 -1.77568031  0.02036796 -0.75137807]
 [-0.29469062  0.17887562 -0.19303466 -0.03111277  0.96857931 -0.96338878
   0.20220343  0.85879711 -0.46431599  0.14937348 -0.65041824 -0.8464238
   1.24243605  0.36574629  0.64072311 -0.01728984 -1.52598757  1.5598771
  -0.7977049  -0.56914616 -0.75257104  1.71056572  0.28845867 -0.70660655
  -0.70099931  1.42921982 -0.14381126 -0.8902977   0.6256699  -0.2427582
  -0.71050681  0.370946   -0.29154902  0.07837999 -0.63684553  0.02312192
   0.74588205  0.85593632  0.75438894  0.96356937  0.30131963 -0.02509984
  -0.40928142 -0.46929201  0.17812181 -0.20030045  0.38512703 -0.82586715
   0.33561518 -0.4700148   0.02645044  0.18978803 -1.03910024  0.42252103
  -1.14749035  0.04533088  1.1588778   0.02640698  0.19894645 -0.68723037
   0.5102758  -0.10755745  0.36671471 -0.01243969]
 [-0.81382039  0.64109948 -0.35438197  0.65635571 -0.1441787  -0.8305379
  -1.92205508  0.60491501  0.80741392 -0.07891267 -0.70756236  0.00925809
  -0.64659353 -0.45981193  1.39339288 -0.12614469  0.23948324 -1.00534803
  -0.7687559  -0.27188539  0.86539675  0.56978763 -0.02741648  0.16327114
   0.45665813  0.10313875  0.18117789  0.28261795  0.43259744  0.22923057
   1.03504134  0.60948573 -0.23360064 -0.68935758 -0.0216894   0.61441843
   0.07651888 -0.74163694  1.24095295 -0.59001432  1.23188961 -0.51028734
   0.17385843 -0.25359781 -0.24471782  0.40396735 -0.11327783  0.11254619
  -0.51087678  0.9928903  -0.99295835  0.6621917   0.05865749 -0.82006579
   0.92902711  0.32252305  0.85710849 -0.20558214 -0.27343594  0.18066598
  -0.08115434 -0.39677571  0.59279933 -0.30360292]]

Weights of Second Hidden Layer:
[[ 0.30984385 -0.06689246  0.18217944 ... -0.1494911   0.11312943
   0.01261693]
 [-0.18629169  0.29059653 -0.39246795 ... -0.1936129  -0.07686817
   0.24379825]
 [ 0.46354282  0.15928063  0.03884209 ... -0.05842039 -0.06673407
   0.26334996]
 ...
 [-0.00857559  0.0348157  -0.13980618 ...  0.34866156 -0.17973736
   0.05366453]
 [ 0.10213444 -0.33786842 -0.23124912 ... -0.06405813  0.06276951
  -0.01785859]
 [ 0.05298052  0.01349277 -0.11355743 ...  0.19609141  0.43786128
   0.10010694]]

Weights of Output Layer:
[[ 9.17828603e-02 -2.10434130e-01  1.42521528e-01]
 [-2.26390519e-02 -7.64882564e-02  7.21149155e-02]
 [-1.83619607e-02  1.76820599e-01  1.97737994e-01]
 [-9.60495423e-02  8.53913497e-02 -5.69739809e-02]
 [-1.10964299e-01 -2.52379733e-01 -7.71515257e-02]
 [ 5.22639983e-02  2.79883635e-02  1.05771288e-01]
 [-2.68649091e-01  6.62629630e-02  2.25546667e-02]
 [ 6.98613215e-02 -1.77447211e-02  1.63206806e-01]
 [-1.32104354e-03  4.56581062e-02 -3.41624325e-03]
 [ 3.86999746e-02  1.50365572e-01  1.91937615e-01]
 [-1.43353818e-01 -1.08970796e-01 -1.62606902e-01]
 [-1.02576905e-01  1.76460506e-01 -1.08096303e-01]
 [-1.66985293e-01  8.46528771e-03 -5.98092323e-02]
 [-3.96593275e-02 -2.27372419e-02  6.45548962e-02]
 [ 1.02484476e-01  1.42689948e-01  4.54099335e-03]
 [-1.72897190e-01 -8.27948509e-02 -3.59733115e-01]
 [-7.03099933e-02 -4.52064267e-02  2.37913108e-01]
 [-1.52343501e-02 -1.27481272e-02 -3.85774251e-02]
 [-1.31784291e-01  1.94360090e-02 -1.75936557e-01]
 [ 1.94460947e-01 -1.82152797e-01  1.52342009e-01]
 [ 3.55334247e-02 -1.43677972e-01 -9.44767491e-02]
 [-4.12488241e-03 -1.25695998e-01 -1.99280380e-01]
 [-2.26475200e-01 -2.69578890e-01 -1.43463645e-01]
 [ 9.30438942e-02 -1.15327879e-02  5.05860627e-02]
 [-1.36244315e-01  6.44777718e-02 -2.58774544e-01]
 [ 8.97102652e-02  8.74332241e-02  3.07570838e-02]
 [ 1.72928010e-01 -4.64789320e-02  1.47875766e-01]
 [-1.37238446e-01 -2.76843241e-02 -2.58451099e-01]
 [ 1.33226955e-01  1.10521171e-01  5.63776610e-02]
 [-6.13163119e-02 -5.10602763e-03 -2.57310555e-02]
 [-5.56590928e-02 -3.67874570e-02 -8.09661544e-02]
 [-1.87278943e-01  1.33982124e-01 -2.47696392e-01]
 [ 1.94857838e-01 -1.15875650e-01 -4.70890470e-03]
 [ 1.64096576e-01 -1.56150572e-01  1.15783038e-01]
 [-1.35772001e-01  1.56772245e-01 -1.33036272e-01]
 [-7.44087364e-02  1.43776969e-01 -2.55512132e-01]
 [ 1.92711629e-02 -1.64251174e-01 -2.42647783e-01]
 [-3.58190252e-01 -3.18215438e-01 -9.91682599e-02]
 [ 8.95735023e-02 -4.40688210e-02  2.60286531e-01]
 [-2.72343816e-02 -1.08893511e-02 -2.68131418e-02]
 [-9.56415025e-03  6.13745610e-02  9.51299128e-02]
 [-6.31890070e-02  1.84482753e-01  1.17501037e-01]
 [ 5.98940004e-02  1.04094975e-02  2.35161608e-01]
 [-8.65998543e-02  2.28678359e-01 -3.65027066e-01]
 [-8.27682419e-02 -9.29208026e-02 -2.26540323e-01]
 [ 1.62904305e-02  7.79141802e-02  6.37248719e-02]
 [-7.05186476e-02  1.02528292e-01 -6.92972282e-02]
 [-5.61977456e-02  1.22446651e-01 -7.33914794e-02]
 [ 1.23011278e-01 -2.35472036e-01 -1.76530368e-01]
 [-2.43019184e-02  3.21683608e-02 -3.34765353e-02]
 [ 1.19933740e-01 -1.08875366e-01  3.24380967e-02]
 [-5.64033401e-02  6.20761752e-02  2.13777814e-01]
 [ 9.78515594e-02  2.84062287e-01  4.11065948e-01]
 [-9.33298059e-02  2.66441639e-01 -2.01452543e-01]
 [ 7.56096225e-02  3.34947452e-02  1.58189915e-01]
 [ 7.14442912e-02 -8.97118527e-02  1.87446767e-01]
 [ 1.22961319e-01 -1.07226001e-01  2.76312626e-01]
 [-1.52556514e-01 -8.07433600e-02 -1.26980243e-01]
 [ 5.84270698e-02  6.43199489e-02  1.51732892e-01]
 [-2.29848091e-01 -2.58652395e-02 -2.86774913e-01]
 [ 1.20972155e-01 -1.06378444e-01  2.82174454e-02]
 [-4.95403489e-02 -2.42574482e-01  1.05084183e-01]
 [ 1.58803748e-04 -1.15182442e-02 -1.00208872e-01]
 [ 1.93868274e-02 -1.21672670e-01  2.04236558e-01]]
